<?xml version="1.0"?>
<opencv_storage>
<stage1>
  <maxWeakCount>6</maxWeakCount>
  <stageThreshold>-1.3242933750152588e+00</stageThreshold>
  <weakClassifiers>
    <_>
      <internalNodes>
        0 -1 4461 4.1782528162002563e-02</internalNodes>
      <leafValues>
        -5.3235906362533569e-01 8.0941444635391235e-01</leafValues></_>
    <_>
      <internalNodes>
        0 -1 67362 4.2918696999549866e-02</internalNodes>
      <leafValues>
        -6.4789557456970215e-01 6.9095164537429810e-01</leafValues></_>
    <_>
      <internalNodes>
        0 -1 10945 -3.2235272228717804e-02</internalNodes>
      <leafValues>
        4.2509549856185913e-01 -7.1964550018310547e-01</leafValues></_>
    <_>
      <internalNodes>
        0 -1 75992 -2.0826954394578934e-02</internalNodes>
      <leafValues>
        4.6986865997314453e-01 -6.4362454414367676e-01</leafValues></_>
    <_>
      <internalNodes>
        0 -1 3357 1.0265266522765160e-02</internalNodes>
      <leafValues>
        -4.3085303902626038e-01 5.3145253658294678e-01</leafValues></_>
    <_>
      <internalNodes>
        0 -1 76237 -2.6530283503234386e-03</internalNodes>
      <leafValues>
        5.0534337759017944e-01 -4.4798055291175842e-01</leafValues></_></weakClassifiers></stage1>
</opencv_storage>
